<?xml version="1.0"?>
<opencv_storage>
<cascade>
  <stageType>BOOST</stageType>
  <featureType>HAAR</featureType>
  <height>50</height>
  <width>50</width>
  <stageParams>
    <boostType>GAB</boostType>
    <minHitRate>9.9500000476837158e-01</minHitRate>
    <maxFalseAlarm>5.0000000000000000e-01</maxFalseAlarm>
    <weightTrimRate>9.4999999999999996e-01</weightTrimRate>
    <maxDepth>1</maxDepth>
    <maxWeakCount>100</maxWeakCount></stageParams>
  <featureParams>
    <maxCatCount>0</maxCatCount>
    <featSize>1</featSize>
    <mode>BASIC</mode></featureParams>
  <stageNum>20</stageNum>
  <stages>
    <!-- stage 0 -->
    <_>
      <maxWeakCount>1</maxWeakCount>
      <stageThreshold>1.</stageThreshold>
      <weakClassifiers>
        <_>
          <internalNodes>
            0 -1 10 -5.4695557802915573e-02</internalNodes>
          <leafValues>
            -1. 1.</leafValues></_></weakClassifiers></_>
    <!-- stage 1 -->
    <_>
      <maxWeakCount>5</maxWeakCount>
      <stageThreshold>2.0298311114311218e-01</stageThreshold>
      <weakClassifiers>
        <_>
          <internalNodes>
            0 -1 11 -1.7699918244034052e-03</internalNodes>
          <leafValues>
            -1. 1.9402985274791718e-01</leafValues></_>
        <_>
          <internalNodes>
            0 -1 12 -6.9314258871600032e-04</internalNodes>
          <leafValues>
            -1. 5.3730243816971779e-03</leafValues></_>
        <_>
          <internalNodes>
            0 -1 1 -1.0813738219439983e-02</internalNodes>
          <leafValues>
            -1. 3.0797317158430815e-03</leafValues></_>
        <_>
          <internalNodes>
            0 -1 4 6.6871561110019684e-02</internalNodes>
          <leafValues>
            1.5015112003311515e-03 -1.</leafValues></_>
        <_>
          <internalNodes>
            0 -1 0 -4.6551946434192359e-04</internalNodes>
          <leafValues>
            1. -1.0009998222813010e-03</leafValues></_></weakClassifiers></_>
    <!-- stage 2 -->
    <_>
      <maxWeakCount>2</maxWeakCount>
      <stageThreshold>1.0030097328126431e-03</stageThreshold>
      <weakClassifiers>
        <_>
          <internalNodes>
            0 -1 13 -6.0152620077133179e-02</internalNodes>
          <leafValues>
            -1. 2.0040080416947603e-03</leafValues></_>
        <_>
          <internalNodes>
            0 -1 0 -4.6551946434192359e-04</internalNodes>
          <leafValues>
            1. -1.0009983088821173e-03</leafValues></_></weakClassifiers></_>
    <!-- stage 3 -->
    <_>
      <maxWeakCount>2</maxWeakCount>
      <stageThreshold>2.5113064330071211e-03</stageThreshold>
      <weakClassifiers>
        <_>
          <internalNodes>
            0 -1 9 -1.7225641757249832e-02</internalNodes>
          <leafValues>
            -1. 3.5122931003570557e-03</leafValues></_>
        <_>
          <internalNodes>
            0 -1 0 -4.6551946434192359e-04</internalNodes>
          <leafValues>
            1. -1.0009865509346128e-03</leafValues></_></weakClassifiers></_>
    <!-- stage 4 -->
    <_>
      <maxWeakCount>3</maxWeakCount>
      <stageThreshold>-5.0075119361281395e-04</stageThreshold>
      <weakClassifiers>
        <_>
          <internalNodes>
            0 -1 0 -4.6551946434192359e-04</internalNodes>
          <leafValues>
            1. -1.0010009864345193e-03</leafValues></_>
        <_>
          <internalNodes>
            0 -1 3 -4.6635381877422333e-03</internalNodes>
          <leafValues>
            -1. 5.0024979282170534e-04</leafValues></_>
        <_>
          <internalNodes>
            0 -1 0 -4.6551946434192359e-04</internalNodes>
          <leafValues>
            1. 4.1747161283467449e-11</leafValues></_></weakClassifiers></_>
    <!-- stage 5 -->
    <_>
      <maxWeakCount>2</maxWeakCount>
      <stageThreshold>-5.0075119361281395e-04</stageThreshold>
      <weakClassifiers>
        <_>
          <internalNodes>
            0 -1 0 -4.6551946434192359e-04</internalNodes>
          <leafValues>
            1. -1.0010009864345193e-03</leafValues></_>
        <_>
          <internalNodes>
            0 -1 5 2.3425456602126360e-03</internalNodes>
          <leafValues>
            5.0024979282170534e-04 -1.</leafValues></_></weakClassifiers></_>
    <!-- stage 6 -->
    <_>
      <maxWeakCount>1</maxWeakCount>
      <stageThreshold>-1.0010009864345193e-03</stageThreshold>
      <weakClassifiers>
        <_>
          <internalNodes>
            0 -1 0 -4.6551946434192359e-04</internalNodes>
          <leafValues>
            1. -1.0010009864345193e-03</leafValues></_></weakClassifiers></_>
    <!-- stage 7 -->
    <_>
      <maxWeakCount>3</maxWeakCount>
      <stageThreshold>-5.0075119361281395e-04</stageThreshold>
      <weakClassifiers>
        <_>
          <internalNodes>
            0 -1 0 -4.6551946434192359e-04</internalNodes>
          <leafValues>
            1. -1.0010009864345193e-03</leafValues></_>
        <_>
          <internalNodes>
            0 -1 2 -1.7886974092107266e-04</internalNodes>
          <leafValues>
            -1. 5.0024979282170534e-04</leafValues></_>
        <_>
          <internalNodes>
            0 -1 0 -4.6551946434192359e-04</internalNodes>
          <leafValues>
            1. 4.1747161283467449e-11</leafValues></_></weakClassifiers></_>
    <!-- stage 8 -->
    <_>
      <maxWeakCount>1</maxWeakCount>
      <stageThreshold>-1.0010009864345193e-03</stageThreshold>
      <weakClassifiers>
        <_>
          <internalNodes>
            0 -1 0 -4.6551946434192359e-04</internalNodes>
          <leafValues>
            1. -1.0010009864345193e-03</leafValues></_></weakClassifiers></_>
    <!-- stage 9 -->
    <_>
      <maxWeakCount>1</maxWeakCount>
      <stageThreshold>-1.0010009864345193e-03</stageThreshold>
      <weakClassifiers>
        <_>
          <internalNodes>
            0 -1 0 -4.6551946434192359e-04</internalNodes>
          <leafValues>
            1. -1.0010009864345193e-03</leafValues></_></weakClassifiers></_>
    <!-- stage 10 -->
    <_>
      <maxWeakCount>2</maxWeakCount>
      <stageThreshold>-5.0075119361281395e-04</stageThreshold>
      <weakClassifiers>
        <_>
          <internalNodes>
            0 -1 0 -4.6551946434192359e-04</internalNodes>
          <leafValues>
            1. -1.0010009864345193e-03</leafValues></_>
        <_>
          <internalNodes>
            0 -1 6 5.0511406734585762e-03</internalNodes>
          <leafValues>
            5.0024979282170534e-04 -1.</leafValues></_></weakClassifiers></_>
    <!-- stage 11 -->
    <_>
      <maxWeakCount>2</maxWeakCount>
      <stageThreshold>-3.3435412771787298e-10</stageThreshold>
      <weakClassifiers>
        <_>
          <internalNodes>
            0 -1 0 -4.6551946434192359e-04</internalNodes>
          <leafValues>
            1. -1.0010009864345193e-03</leafValues></_>
        <_>
          <internalNodes>
            0 -1 7 1.6825098544359207e-02</internalNodes>
          <leafValues>
            1.0010006371885538e-03 -1.</leafValues></_></weakClassifiers></_>
    <!-- stage 12 -->
    <_>
      <maxWeakCount>1</maxWeakCount>
      <stageThreshold>-1.0010009864345193e-03</stageThreshold>
      <weakClassifiers>
        <_>
          <internalNodes>
            0 -1 0 -4.6551946434192359e-04</internalNodes>
          <leafValues>
            1. -1.0010009864345193e-03</leafValues></_></weakClassifiers></_>
    <!-- stage 13 -->
    <_>
      <maxWeakCount>1</maxWeakCount>
      <stageThreshold>-1.0010009864345193e-03</stageThreshold>
      <weakClassifiers>
        <_>
          <internalNodes>
            0 -1 0 -4.6551946434192359e-04</internalNodes>
          <leafValues>
            1. -1.0010009864345193e-03</leafValues></_></weakClassifiers></_>
    <!-- stage 14 -->
    <_>
      <maxWeakCount>2</maxWeakCount>
      <stageThreshold>-5.0075119361281395e-04</stageThreshold>
      <weakClassifiers>
        <_>
          <internalNodes>
            0 -1 0 -4.6551946434192359e-04</internalNodes>
          <leafValues>
            1. -1.0010009864345193e-03</leafValues></_>
        <_>
          <internalNodes>
            0 -1 8 2.1164938807487488e-02</internalNodes>
          <leafValues>
            5.0024979282170534e-04 -1.</leafValues></_></weakClassifiers></_>
    <!-- stage 15 -->
    <_>
      <maxWeakCount>1</maxWeakCount>
      <stageThreshold>-1.0010009864345193e-03</stageThreshold>
      <weakClassifiers>
        <_>
          <internalNodes>
            0 -1 0 -4.6551946434192359e-04</internalNodes>
          <leafValues>
            1. -1.0010009864345193e-03</leafValues></_></weakClassifiers></_>
    <!-- stage 16 -->
    <_>
      <maxWeakCount>1</maxWeakCount>
      <stageThreshold>-1.0010009864345193e-03</stageThreshold>
      <weakClassifiers>
        <_>
          <internalNodes>
            0 -1 0 -4.6551946434192359e-04</internalNodes>
          <leafValues>
            1. -1.0010009864345193e-03</leafValues></_></weakClassifiers></_>
    <!-- stage 17 -->
    <_>
      <maxWeakCount>1</maxWeakCount>
      <stageThreshold>-1.0010009864345193e-03</stageThreshold>
      <weakClassifiers>
        <_>
          <internalNodes>
            0 -1 0 -4.6551946434192359e-04</internalNodes>
          <leafValues>
            1. -1.0010009864345193e-03</leafValues></_></weakClassifiers></_>
    <!-- stage 18 -->
    <_>
      <maxWeakCount>1</maxWeakCount>
      <stageThreshold>-1.0010009864345193e-03</stageThreshold>
      <weakClassifiers>
        <_>
          <internalNodes>
            0 -1 0 -4.6551946434192359e-04</internalNodes>
          <leafValues>
            1. -1.0010009864345193e-03</leafValues></_></weakClassifiers></_>
    <!-- stage 19 -->
    <_>
      <maxWeakCount>1</maxWeakCount>
      <stageThreshold>-1.0010009864345193e-03</stageThreshold>
      <weakClassifiers>
        <_>
          <internalNodes>
            0 -1 0 -4.6551946434192359e-04</internalNodes>
          <leafValues>
            1. -1.0010009864345193e-03</leafValues></_></weakClassifiers></_></stages>
  <features>
    <_>
      <rects>
        <_>
          0 0 2 1 -1.</_>
        <_>
          1 0 1 1 2.</_></rects>
      <tilted>0</tilted></_>
    <_>
      <rects>
        <_>
          0 0 3 1 -1.</_>
        <_>
          1 0 1 1 2.</_></rects>
      <tilted>0</tilted></_>
    <_>
      <rects>
        <_>
          0 0 1 45 -1.</_>
        <_>
          0 15 1 15 2.</_></rects>
      <tilted>0</tilted></_>
    <_>
      <rects>
        <_>
          0 0 48 32 -1.</_>
        <_>
          16 0 16 32 2.</_></rects>
      <tilted>0</tilted></_>
    <_>
      <rects>
        <_>
          0 0 48 1 -1.</_>
        <_>
          24 0 24 1 2.</_></rects>
      <tilted>0</tilted></_>
    <_>
      <rects>
        <_>
          0 0 50 4 -1.</_>
        <_>
          0 0 25 2 2.</_>
        <_>
          25 2 25 2 2.</_></rects>
      <tilted>0</tilted></_>
    <_>
      <rects>
        <_>
          0 0 50 14 -1.</_>
        <_>
          0 0 25 7 2.</_>
        <_>
          25 7 25 7 2.</_></rects>
      <tilted>0</tilted></_>
    <_>
      <rects>
        <_>
          0 0 50 26 -1.</_>
        <_>
          0 0 25 13 2.</_>
        <_>
          25 13 25 13 2.</_></rects>
      <tilted>0</tilted></_>
    <_>
      <rects>
        <_>
          0 0 50 28 -1.</_>
        <_>
          0 0 25 14 2.</_>
        <_>
          25 14 25 14 2.</_></rects>
      <tilted>0</tilted></_>
    <_>
      <rects>
        <_>
          0 1 27 31 -1.</_>
        <_>
          9 1 9 31 2.</_></rects>
      <tilted>0</tilted></_>
    <_>
      <rects>
        <_>
          0 1 48 37 -1.</_>
        <_>
          16 1 16 37 2.</_></rects>
      <tilted>0</tilted></_>
    <_>
      <rects>
        <_>
          0 4 49 45 -1.</_>
        <_>
          0 19 49 15 2.</_></rects>
      <tilted>0</tilted></_>
    <_>
      <rects>
        <_>
          0 16 49 33 -1.</_>
        <_>
          0 27 49 11 2.</_></rects>
      <tilted>0</tilted></_>
    <_>
      <rects>
        <_>
          18 0 32 26 -1.</_>
        <_>
          18 0 16 13 2.</_>
        <_>
          34 13 16 13 2.</_></rects>
      <tilted>0</tilted></_></features></cascade>
</opencv_storage>
