<?xml version="1.0"?>
<opencv_storage>
<cascade>
  <stageType>BOOST</stageType>
  <featureType>HAAR</featureType>
  <height>24</height>
  <width>24</width>
  <stageParams>
    <boostType>GAB</boostType>
    <minHitRate>9.9500000476837158e-01</minHitRate>
    <maxFalseAlarm>5.0000000000000000e-01</maxFalseAlarm>
    <weightTrimRate>9.4999999999999996e-01</weightTrimRate>
    <maxDepth>1</maxDepth>
    <maxWeakCount>100</maxWeakCount></stageParams>
  <featureParams>
    <maxCatCount>0</maxCatCount>
    <featSize>1</featSize>
    <mode>BASIC</mode></featureParams>
  <stageNum>4</stageNum>
  <stages>
    <!-- stage 0 -->
    <_>
      <maxWeakCount>1</maxWeakCount>
      <stageThreshold>9.4898724555969238e-01</stageThreshold>
      <weakClassifiers>
        <_>
          <internalNodes>
            0 -1 15 -2.2038386669009924e-04</internalNodes>
          <leafValues>
            -9.9842149019241333e-01 9.4898724555969238e-01</leafValues></_></weakClassifiers></_>
    <!-- stage 1 -->
    <_>
      <maxWeakCount>7</maxWeakCount>
      <stageThreshold>-8.1277787685394287e-01</stageThreshold>
      <weakClassifiers>
        <_>
          <internalNodes>
            0 -1 5 -1.8219895660877228e-01</internalNodes>
          <leafValues>
            8.3886253833770752e-01 -5.7281553745269775e-01</leafValues></_>
        <_>
          <internalNodes>
            0 -1 6 1.6436591977253556e-03</internalNodes>
          <leafValues>
            -5.6283921003341675e-01 5.9521681070327759e-01</leafValues></_>
        <_>
          <internalNodes>
            0 -1 1 -2.6965515688061714e-02</internalNodes>
          <leafValues>
            7.6988172531127930e-01 -3.8286030292510986e-01</leafValues></_>
        <_>
          <internalNodes>
            0 -1 2 -2.6079407334327698e-01</internalNodes>
          <leafValues>
            9.6687376499176025e-01 -2.2933264076709747e-01</leafValues></_>
        <_>
          <internalNodes>
            0 -1 9 -4.3898366391658783e-02</internalNodes>
          <leafValues>
            -3.0386534333229065e-01 5.9812760353088379e-01</leafValues></_>
        <_>
          <internalNodes>
            0 -1 10 2.4368276353925467e-04</internalNodes>
          <leafValues>
            -3.9170566201210022e-01 5.8361709117889404e-01</leafValues></_>
        <_>
          <internalNodes>
            0 -1 11 -9.3886703252792358e-03</internalNodes>
          <leafValues>
            -2.4667483568191528e-01 8.1172198057174683e-01</leafValues></_></weakClassifiers></_>
    <!-- stage 2 -->
    <_>
      <maxWeakCount>6</maxWeakCount>
      <stageThreshold>-1.0840971469879150e+00</stageThreshold>
      <weakClassifiers>
        <_>
          <internalNodes>
            0 -1 7 -1.5307207591831684e-02</internalNodes>
          <leafValues>
            1. -6.0692214965820312e-01</leafValues></_>
        <_>
          <internalNodes>
            0 -1 14 -1.1066091246902943e-03</internalNodes>
          <leafValues>
            8.8533562421798706e-01 -4.3347847461700439e-01</leafValues></_>
        <_>
          <internalNodes>
            0 -1 4 -9.3833342194557190e-02</internalNodes>
          <leafValues>
            1. -2.8603541851043701e-01</leafValues></_>
        <_>
          <internalNodes>
            0 -1 12 -2.2311874199658632e-03</internalNodes>
          <leafValues>
            1. -2.2755193710327148e-01</leafValues></_>
        <_>
          <internalNodes>
            0 -1 0 1.7010497394949198e-03</internalNodes>
          <leafValues>
            -2.0976431667804718e-01 1.</leafValues></_>
        <_>
          <internalNodes>
            0 -1 13 -5.0349440425634384e-04</internalNodes>
          <leafValues>
            -4.8434939980506897e-01 6.7965519428253174e-01</leafValues></_></weakClassifiers></_>
    <!-- stage 3 -->
    <_>
      <maxWeakCount>2</maxWeakCount>
      <stageThreshold>5.5347792804241180e-02</stageThreshold>
      <weakClassifiers>
        <_>
          <internalNodes>
            0 -1 8 -2.7100611478090286e-02</internalNodes>
          <leafValues>
            -9.4465219974517822e-01 1.</leafValues></_>
        <_>
          <internalNodes>
            0 -1 3 -1.4056678861379623e-02</internalNodes>
          <leafValues>
            1. -8.2957983016967773e-01</leafValues></_></weakClassifiers></_></stages>
  <features>
    <_>
      <rects>
        <_>
          0 4 17 2 -1.</_>
        <_>
          0 5 17 1 2.</_></rects>
      <tilted>0</tilted></_>
    <_>
      <rects>
        <_>
          0 9 24 8 -1.</_>
        <_>
          12 9 12 8 2.</_></rects>
      <tilted>0</tilted></_>
    <_>
      <rects>
        <_>
          4 6 10 18 -1.</_>
        <_>
          4 15 10 9 2.</_></rects>
      <tilted>0</tilted></_>
    <_>
      <rects>
        <_>
          5 0 6 12 -1.</_>
        <_>
          7 0 2 12 2.</_></rects>
      <tilted>0</tilted></_>
    <_>
      <rects>
        <_>
          5 3 18 8 -1.</_>
        <_>
          14 3 9 8 2.</_></rects>
      <tilted>0</tilted></_>
    <_>
      <rects>
        <_>
          6 5 16 9 -1.</_>
        <_>
          14 5 8 9 2.</_></rects>
      <tilted>0</tilted></_>
    <_>
      <rects>
        <_>
          6 8 2 7 -1.</_>
        <_>
          7 8 1 7 2.</_></rects>
      <tilted>0</tilted></_>
    <_>
      <rects>
        <_>
          6 8 12 9 -1.</_>
        <_>
          12 8 6 9 2.</_></rects>
      <tilted>0</tilted></_>
    <_>
      <rects>
        <_>
          6 13 6 2 -1.</_>
        <_>
          8 13 2 2 2.</_></rects>
      <tilted>0</tilted></_>
    <_>
      <rects>
        <_>
          10 3 4 9 -1.</_>
        <_>
          10 6 4 3 2.</_></rects>
      <tilted>0</tilted></_>
    <_>
      <rects>
        <_>
          10 11 2 3 -1.</_>
        <_>
          11 11 1 3 2.</_></rects>
      <tilted>0</tilted></_>
    <_>
      <rects>
        <_>
          11 14 8 7 -1.</_>
        <_>
          15 14 4 7 2.</_></rects>
      <tilted>0</tilted></_>
    <_>
      <rects>
        <_>
          13 13 2 2 -1.</_>
        <_>
          13 14 2 1 2.</_></rects>
      <tilted>0</tilted></_>
    <_>
      <rects>
        <_>
          14 9 2 10 -1.</_>
        <_>
          14 9 1 5 2.</_>
        <_>
          15 14 1 5 2.</_></rects>
      <tilted>0</tilted></_>
    <_>
      <rects>
        <_>
          14 12 2 2 -1.</_>
        <_>
          15 12 1 2 2.</_></rects>
      <tilted>0</tilted></_>
    <_>
      <rects>
        <_>
          21 20 3 4 -1.</_>
        <_>
          22 20 1 4 2.</_></rects>
      <tilted>0</tilted></_></features></cascade>
</opencv_storage>
